digraph Tree {
node [shape=box, style="filled, rounded", color="black", fontname="helvetica"] ;
edge [fontname="helvetica"] ;
0 [label="petal length (cm) <= 2.45\ngini = 0.67\nsamples = 96\nvalue = [46, 52, 52]\nclass = versicolor", fillcolor="#ffffff"] ;
1 [label="gini = 0.0\nsamples = 31\nvalue = [46, 0, 0]\nclass = setosa", fillcolor="#e58139"] ;
0 -> 1 [labeldistance=2.5, labelangle=45, headlabel="True"] ;
2 [label="sepal length (cm) <= 6.15\ngini = 0.5\nsamples = 65\nvalue = [0, 52, 52]\nclass = versicolor", fillcolor="#ffffff"] ;
0 -> 2 [labeldistance=2.5, labelangle=-45, headlabel="False"] ;
3 [label="petal length (cm) <= 4.85\ngini = 0.28\nsamples = 25\nvalue = [0, 35, 7]\nclass = versicolor", fillcolor="#61ea9a"] ;
2 -> 3 ;
4 [label="sepal length (cm) <= 5.0\ngini = 0.05\nsamples = 20\nvalue = [0, 35, 1]\nclass = versicolor", fillcolor="#3fe685"] ;
3 -> 4 ;
5 [label="petal length (cm) <= 3.9\ngini = 0.5\nsamples = 2\nvalue = [0, 1, 1]\nclass = versicolor", fillcolor="#ffffff"] ;
4 -> 5 ;
6 [label="gini = 0.0\nsamples = 1\nvalue = [0, 1, 0]\nclass = versicolor", fillcolor="#39e581"] ;
5 -> 6 ;
7 [label="gini = 0.0\nsamples = 1\nvalue = [0, 0, 1]\nclass = virginica", fillcolor="#8139e5"] ;
5 -> 7 ;
8 [label="gini = 0.0\nsamples = 18\nvalue = [0, 34, 0]\nclass = versicolor", fillcolor="#39e581"] ;
4 -> 8 ;
9 [label="gini = 0.0\nsamples = 5\nvalue = [0, 0, 6]\nclass = virginica", fillcolor="#8139e5"] ;
3 -> 9 ;
10 [label="petal length (cm) <= 5.05\ngini = 0.4\nsamples = 40\nvalue = [0, 17, 45]\nclass = virginica", fillcolor="#b184ef"] ;
2 -> 10 ;
11 [label="petal width (cm) <= 1.8\ngini = 0.19\nsamples = 13\nvalue = [0, 17, 2]\nclass = versicolor", fillcolor="#50e890"] ;
10 -> 11 ;
12 [label="gini = 0.0\nsamples = 12\nvalue = [0, 17, 0]\nclass = versicolor", fillcolor="#39e581"] ;
11 -> 12 ;
13 [label="gini = 0.0\nsamples = 1\nvalue = [0, 0, 2]\nclass = virginica", fillcolor="#8139e5"] ;
11 -> 13 ;
14 [label="gini = 0.0\nsamples = 27\nvalue = [0, 0, 43]\nclass = virginica", fillcolor="#8139e5"] ;
10 -> 14 ;
}